tree
version=v4
num_class=1
num_tree_per_iteration=1
label_index=0
max_feature_idx=129
objective=lambdarank
feature_names=Column_0 Column_1 Column_2 Column_3 Column_4 Column_5 Column_6 Column_7 Column_8 Column_9 Column_10 Column_11 Column_12 Column_13 Column_14 Column_15 Column_16 Column_17 Column_18 Column_19 Column_20 Column_21 Column_22 Column_23 Column_24 Column_25 Column_26 Column_27 Column_28 Column_29 Column_30 Column_31 Column_32 Column_33 Column_34 Column_35 Column_36 Column_37 Column_38 Column_39 Column_40 Column_41 Column_42 Column_43 Column_44 Column_45 Column_46 Column_47 Column_48 Column_49 Column_50 Column_51 Column_52 Column_53 Column_54 Column_55 Column_56 Column_57 Column_58 Column_59 Column_60 Column_61 Column_62 Column_63 Column_64 Column_65 Column_66 Column_67 Column_68 Column_69 Column_70 Column_71 Column_72 Column_73 Column_74 Column_75 Column_76 Column_77 Column_78 Column_79 Column_80 Column_81 Column_82 Column_83 Column_84 Column_85 Column_86 Column_87 Column_88 Column_89 Column_90 Column_91 Column_92 Column_93 Column_94 Column_95 Column_96 Column_97 Column_98 Column_99 Column_100 Column_101 Column_102 Column_103 Column_104 Column_105 Column_106 Column_107 Column_108 Column_109 Column_110 Column_111 Column_112 Column_113 Column_114 Column_115 Column_116 Column_117 Column_118 Column_119 Column_120 Column_121 Column_122 Column_123 Column_124 Column_125 Column_126 Column_127 Column_128 Column_129
feature_infos=[9:20] [-0.22342005372047424:0.83020734786987305] [1:12] [55:19063] [1.5004165012444784e-07:0.00040102331752590002] [0:0.14717477486224401] [0:0.0151911883593826] [0:1] [0:1] [0:1] [0:1] [0:1] [0:1] [0:1] [0:1] [0:1] [0:1] [0:1] [0:1] [0:1] [0:1] none [0:1] [0:1] [0:1] [0:1] [0:1] [0:1] [0:1] [0:1] [0:1] [0:1] [0:1] [0:1] [0:1] [0:1] [0:1] [0:1] none [0:1] [0:1] [0:1] [0:1] [0:1] [0:1] [0:1] [0:1] none [0:1] [0:1] [0:1] [0:1] [0:1] [0:1] [0:1] [0:1] [0:1] [0:1] [0:1] [0:1] [0:1] [0:1] [0:1] [0:1] [0:1] [0:1] [0:1] [0:1] [0:1] [0:1] [0:1] [0:1] [0:1] [0:1] [0:1] [0:1] [0:1] [0:1] [0:1] [0:1] [0:1] [0:1] [0:1] [0:1] [0:1] [0:1] [0:1] [0:1] [0:1] [0:1] [0:1] [0:1] [0:1] [0:1] [0:1] [0:1] [0:1] [0:1] [0:1] [0:1] [0:1] [0:1] [0:1] [0:1] [0:1] [0:1] [0:1] [0:1] [0:1] [0:1] [0:1] [0:1] [0:1] none [0:1] [0:1] [0:1] [0:1] [0:1] [0:1] [0:1] [0:1] [0:1] [0:1] [0:1] [10.198214585494256:61.507132220204518] [0:4] [1:1210] [5.9350278420471794:35.318670100831881] [5.9350278420471794:35.318670100831881]
tree_sizes=2302 2308 2303 2303 2311 2306 2311 2303 2302 2292 2306 2298 2302 2290 2308 2308 2296 2314 2305 2315

Tree=0
num_leaves=20
num_cat=0
split_feature=3 3 4 4 1 3 128 4 1 1 3 125 5 125 3 4 1 3 127
split_gain=154.128 20.1131 19.6939 22.3357 13.3007 12.0477 8.55734 6.12263 6.7119 5.7398 5.39436 5.35396 4.99371 4.50849 4.49705 4.31149 3.92453 3.53074 3.37672
threshold=2083.5000000000005 5098.5000000000009 1.0638836572909571e-05 9.2667568682939651e-07 0.37632092833518987 1108.5000000000002 15.605588165060871 6.7928079133339637e-06 0.11406785249710084 0.20234847068786624 3263.5000000000005 38.012332879274922 0.00014994455903810002 15.437843981867099 2160.5000000000005 1.0385229310479628e-06 0.13510557264089587 310.50000000000006 18.500000000000004
decision_type=2 2 2 2 2 2 2 2 2 2 2 2 2 2 2 2 2 2 2
left_child=2 4 3 11 7 -5 -7 8 13 -10 16 17 -3 -2 -11 -16 -9 -1 -4
right_child=1 12 18 5 -6 6 -8 10 9 14 -12 -13 -14 -15 15 -17 -18 -19 -20
leaf_value=0.007950859085837373 -0.0069980095652163385 -0.0018993399810255816 -0.0036593166347407271 -0.0093726741355680578 0.0056554177824832954 -0.0068673722767097012 -0.0015566428920700405 -0.0067677686431290799 -0.0043916653352308859 0.0066874802883489428 0.0054520713744731584 0.0086067376691944773 0.0069095019982309477 0.0039280399151921906 0.0031677415976908807 -0.0018699820935041082 0.0020350218031650498 -0.0021399917365823103 0.0057199842931415388
leaf_weight=0.91795798111707583 1.0215403855254397 1.6816164601477783 1.2101194221759204 30.529331250281757 21.179462596461235 21.939825810419279 11.593466763973991 1.6524477543061973 9.3965455796060251 2.4163903484877691 12.377000383421544 1.3998204163799517 37.200879916388658 12.463885042143373 5.8233792626924723 15.691215316903252 5.4162406845898659 15.573304125457069 4.6354710601044644
leaf_count=18 98 106 73 3281 705 2044 865 102 710 68 406 27 854 500 267 1093 315 1206 162
internal_value=0 0.00353664 -0.00508832 -0.00572076 0.00220619 -0.0071002 -0.00503129 0.00110366 0.00012406 -0.00108026 0.0034619 -0.000781412 0.00652853 0.00310038 0.000219976 -0.000506416 -2.28071e-05 -0.0015783 0.00377834
internal_weight=0 126.321 87.7993 81.9537 87.4381 64.0626 33.5333 66.2586 46.813 33.3275 19.4457 17.8911 38.8825 13.4854 23.931 21.5146 7.06869 16.4913 5.84559
internal_count=12900 5224 7676 7441 4264 6190 2909 3559 2736 2138 823 1251 960 598 1428 1360 417 1224 235
is_linear=0
shrinkage=0.005


Tree=1
num_leaves=20
num_cat=0
split_feature=3 127 4 3 4 4 3 128 37 1 1 4 1 127 6 6 102 30 57
split_gain=377.46 78.21 59.9014 43.8096 49.4314 52.5405 25.01 23.9335 35.3913 21.0947 20.6227 26.5054 19.1629 17.8443 17.7631 13.5466 10.9181 9.95866 9.62408
threshold=3263.5000000000005 99.500000000000014 6.7928079133339637e-06 1662.5000000000002 8.6086433894939096e-07 1.0638836572909571e-05 7522.0000000000009 21.318102530081976 1.0000000180025095e-35 0.41562731564044958 0.43501482903957372 3.476484886723002e-07 0.37632092833518987 164.50000000000003 0.0032770504635615005 0.0012715536170601503 1.0000000180025095e-35 1.0000000180025095e-35 1.0000000180025095e-35
decision_type=2 2 2 2 2 2 2 2 2 2 2 2 2 2 2 2 2 2 2
left_child=1 3 6 4 7 -6 9 8 -1 14 11 -3 18 -4 -2 -7 -14 -13 -5
right_child=2 10 13 12 5 15 -8 -9 -10 -11 -12 17 16 -15 -16 -17 -18 -19 -20
leaf_value=-0.006340050609037624 -0.0021892288067885961 0.0084905192538514175 0.0045705447590992931 -0.0036349343790642893 -0.0089879922912378361 -0.0045181675793390724 0.0056008971033248136 0.0046875352441169658 0.0068123289912042822 0.0043424087167210227 0.0058494118028800503 -0.0051933696014031059 -0.00056957411471432668 0.0077622079670210484 0.0047404764023805668 0.0062744282829970965 0.0068098475532181327 0.005860017287382422 0.0038165655047387591
leaf_weight=26.973194799385965 62.60607820446603 5.7988988328725126 110.10553102148697 96.619676664005965 110.71840051561594 4.8338455175980908 26.779673702083528 10.909490544348953 6.311640061903744 22.771435025613755 22.328650508541614 15.928373576607557 16.180089927278463 72.713956277817488 10.850304462015627 7.2958352128043771 7.2620250927284351 2.3366828178986898 4.5366926663555196
leaf_count=858 1225 22 731 2933 5091 106 126 41 43 198 191 482 328 240 107 46 42 23 67
internal_value=0 -0.00364139 0.00402487 -0.00460062 -0.0062743 -0.00790569 0.00132715 -0.0017395 -0.00384603 0.000137792 0.00238866 -0.000822528 -0.0023568 0.00583999 -0.00116564 0.00197343 0.00171646 -0.00377929 -0.00330075
internal_weight=0 338.033 305.827 291.641 167.042 122.848 123.007 44.1943 33.2848 96.2278 46.3926 24.064 124.598 182.819 73.4564 12.1297 23.4421 18.2651 101.156
internal_count=12900 10273 2627 9555 6185 5243 1656 942 901 1530 718 527 3370 971 1332 152 370 505 3000
is_linear=0
shrinkage=0.005


Tree=2
num_leaves=20
num_cat=0
split_feature=3 127 4 4 4 3 3 125 3 1 6 1 1 6 3 128 6 105 4
split_gain=409.427 91.8885 61.5466 43.6551 37.654 36.8738 29.4947 26.174 25.7842 20.0653 17.4223 20.101 15.7202 14.6618 13.3488 12.2478 11.5212 10.9476 10.0225
threshold=3263.5000000000005 99.500000000000014 7.0849208854810359e-06 6.4296823244636229e-06 1.0920542798901911e-06 1827.5000000000002 310.50000000000006 38.012332879274922 7522.0000000000009 0.37632092833518987 0.00041275098220765004 0.4311926811933518 0.53645741939544689 0.00099134525526045039 5400.5000000000009 17.565812545223043 0.0045523756283796513 1.0000000180025095e-35 1.8749807089492126e-06
decision_type=2 2 2 2 2 2 2 2 2 2 2 2 2 2 2 2 2 2 2
left_child=1 3 8 4 6 -6 -1 17 12 13 -3 -12 15 -5 -4 16 -2 -8 -7
right_child=2 10 14 9 5 18 7 -9 -10 -11 11 -13 -14 -15 -16 -17 -18 -19 -20
leaf_value=0.0081426090304249996 -0.0029534817110022662 0.006385534010703903 0.0041880515469279282 -0.0085321557690504705 -0.0090665352698078381 -0.0077208415924297138 -0.0052893919001740057 0.0066222651117721579 0.005084544896645362 0.0042188172140672567 -0.00446413382062951 0.0032431070727023353 0.0065973096137828847 -0.0008548105499905298 0.0068106777236642 0.00278339807012082 0.0051681108353293275 0.0082145341808338192 -0.0029614425884549643
leaf_weight=5.6983125023543826 50.570825579110533 16.65573554392904 81.403468274511397 8.4438235247507674 103.36162839271128 14.663863096386192 50.176445580087602 5.4630588460713616 28.999597601592541 14.452777832746504 14.031843895092605 21.303970564156771 7.2076909039169541 23.599821392446756 120.10423168633133 15.444723287131636 4.7794142346829167 1.5471299774944771 45.0255072619766
leaf_count=19 1245 119 546 336 5021 537 1668 21 128 130 433 166 41 548 385 245 37 7 1268
internal_value=0 -0.00392155 0.00412383 -0.00508402 -0.00599199 -0.00725963 -0.00270521 -0.00378613 0.00105914 -0.000671961 0.00216971 0.000182563 -0.000437412 -0.00287787 0.00575121 -0.00115362 -0.00225219 -0.00488547 -0.00413068
internal_weight=0 324.424 308.51 272.432 225.936 163.051 62.8849 57.1866 107.002 46.4964 51.9916 35.3358 78.0027 32.0436 201.508 70.795 55.3502 51.7236 59.6894
internal_count=12900 10273 2627 9555 8541 6826 1715 1696 1696 1014 718 599 1568 884 931 1527 1282 1675 1805
is_linear=0
shrinkage=0.005


Tree=3
num_leaves=20
num_cat=0
split_feature=3 127 4 3 4 4 3 125 127 3 1 6 1 58 1 0 128 6 81
split_gain=390.909 82.1615 46.5475 36.9228 40.775 39.4228 27.443 29.3484 20.1168 20.0531 18.9537 18.4971 18.3254 13.6916 14.8317 13.6155 10.6673 10.1304 9.71649
threshold=3263.5000000000005 99.500000000000014 7.0849208854810359e-06 2083.5000000000005 1.0638836572909571e-05 8.6086433894939096e-07 310.50000000000006 38.012332879274922 164.50000000000003 7522.0000000000009 0.53645741939544689 0.00041275098220765004 0.48230585455894476 1.0000000180025095e-35 0.37632092833518987 10.500000000000002 17.565812545223043 0.0040644754901355004 1.0000000180025095e-35
decision_type=2 2 2 2 2 2 2 2 2 2 2 2 2 2 2 2 2 2 2
left_child=1 3 9 4 5 6 -1 -8 -4 10 16 -3 -13 14 18 -6 17 -2 -5
right_child=2 11 8 13 15 -7 7 -9 -10 -11 -12 12 -14 -15 -16 -17 -18 -19 -20
leaf_value=0.0075222943601443324 -0.0028846351213081003 0.0060234728015529128 0.0038033471387162571 -0.004641041274884539 0.0065514470022394744 -0.0085488139246553928 -0.0064790585129837729 0.0060611449115212344 0.0068889050619655905 0.0055562589538339022 0.0068805364745499363 -0.0039252450788837207 0.0039846153266247294 0.0046302509808444827 0.0015408516689765092 -0.003301568856040449 0.002597035255762283 0.0039252553072319785 0.0033137184824569964
leaf_weight=5.5064209382981053 45.601645197719336 17.881951690651476 110.52176833339036 53.96472193300724 7.1984651014208776 122.011841412168 29.380569919012487 5.5464790947735301 101.18571965396404 19.918365701567382 8.6812230776995403 16.498269360512499 13.165884132497011 6.5086188670247784 14.738812924362717 6.8356854794546962 16.040921252220869 6.2041694810613981 4.1327837919816366
leaf_count=18 1215 119 696 1773 48 6055 1103 17 235 128 41 490 109 79 219 171 245 67 72
internal_value=0 -0.00402901 0.00396647 -0.00515078 -0.00642445 -0.00713087 -0.00285208 -0.00448765 0.00527809 0.00108735 -7.58004e-05 0.00200674 -0.0004146 -0.00231786 -0.00293874 0.00175229 -0.000965888 -0.0020691 -0.00407518
internal_weight=0 303.371 308.154 255.824 176.479 162.445 40.4335 34.927 211.707 96.4463 76.528 47.5461 29.6642 79.3449 72.8363 14.0342 67.8467 51.8058 58.0975
internal_count=12900 10273 2627 9555 7412 7193 1138 1120 931 1696 1568 718 599 2143 2064 219 1527 1282 1845
is_linear=0
shrinkage=0.005


Tree=4
num_leaves=20
num_cat=0
split_feature=3 3 125 4 1 4 3 37 4 4 127 127 0 4 105 128 1 1 1
split_gain=363.011 70.6501 54.2513 51.5662 35.6586 27.0733 27.3623 21.4472 20.9255 20.5744 20.3471 15.0516 12.8828 12.876 13.0086 13.4331 11.5623 10.7216 10.2761
threshold=2449.5000000000005 4796.5000000000009 38.012332879274922 1.0638836572909571e-05 0.53645741939544689 4.6306803495158349e-07 1827.5000000000002 1.0000000180025095e-35 5.545373635307897e-06 6.4296823244636229e-06 126.50000000000001 119.50000000000001 11.500000000000002 1.9531055208970834e-07 1.0000000180025095e-35 16.991264114092285 0.4438468217849732 -0.059599507600069039 0.10538516566157342
decision_type=2 2 2 2 2 2 2 2 2 2 2 2 2 2 2 2 2 2 2
left_child=2 4 3 5 9 7 10 11 -3 13 -7 -1 -5 -2 15 18 -10 -8 -15
right_child=1 8 -4 12 -6 6 17 -9 16 -11 -12 -13 -14 14 -16 -17 -18 -19 -20
leaf_value=-0.0056667032026507073 0.0072064453378599472 0.002042449825434443 0.0053820641172583729 0.0044150656597666876 0.0069032975305333049 -0.0088556183586627653 0.0084041105539841565 0.0076168628456651909 0.0050673568187427874 0.0019681127940066952 0.0043339892496673527 0.0054707662473183847 -0.0039559914243430874 8.1387868898284783e-05 0.0091313980402080528 0.00093456384187627791 0.0080584361483050631 -0.004458645394207564 -0.0047577811894700204
leaf_weight=19.185883086174734 3.9514328353106967 42.546451952308416 11.845384175889192 14.555322319269182 21.101241935044527 113.14010965730995 1.6797981113195408 4.9081728793680659 101.63491263054311 72.624890423379838 3.0015757614746681 3.6032566130161277 6.7171348035335532 14.426315766759215 2.5345965810120097 22.429131121374667 47.366990700364113 45.554526205174625 45.796378472819924
leaf_count=710 23 525 104 145 71 5910 7 23 486 840 30 27 188 313 6 445 87 1496 1464
internal_value=0 0.00301297 -0.00503183 -0.00561275 0.000790034 -0.00643488 -0.00720982 -0.00186384 0.00513512 -7.41453e-06 -0.00851474 -0.00390573 0.00177176 -0.00161697 -0.00202625 -0.00236841 0.00601821 -0.00400121 -0.00359856
internal_weight=0 374.412 224.191 212.346 182.864 191.073 163.376 27.6973 191.548 161.763 116.142 22.7891 21.2725 89.1379 85.1864 82.6518 149.002 47.2343 60.2227
internal_count=12900 4260 8640 8536 3162 8203 7443 760 1098 3091 5940 737 333 2251 2228 2222 573 1503 1777
is_linear=0
shrinkage=0.005


Tree=5
num_leaves=20
num_cat=0
split_feature=3 127 127 3 4 4 3 125 6 1 5 4 58 1 0 1 81 128 1
split_gain=343.718 76.9385 45.4431 37.5207 44.2032 34.8701 24.4368 27.3886 17.708 19.134 17.432 15.3316 14.747 13.3895 12.8965 11.6775 14.1945 11.7446 9.68744
threshold=3263.5000000000005 99.500000000000014 164.50000000000003 2118.5000000000005 1.0638836572909571e-05 8.6086433894939096e-07 310.50000000000006 38.012332879274922 0.00041275098220765004 0.48230585455894476 0.00032404692151635008 5.545373635307897e-06 1.0000000180025095e-35 0.4757757186889649 10.500000000000002 0.37632092833518987 1.0000000180025095e-35 14.529935082337838 -0.059599507600069039
decision_type=2 2 2 2 2 2 2 2 2 2 2 2 2 2 2 2 2 2 2
left_child=1 3 10 4 5 6 -1 -8 -3 -10 -2 13 15 -4 -6 16 17 -5 -19
right_child=2 8 11 12 14 -7 7 -9 9 -11 -12 -13 -14 -15 -16 -17 -18 18 -20
leaf_value=0.0075895442460684305 -0.0013507630820058275 0.0057558810097318846 -0.0012695382715701736 -0.0068041413172997642 0.0059945776959775552 -0.0085245502247562853 -0.0065885233671993957 0.0056839085389093005 -0.0044051772341979559 0.0039840059369546203 0.0027948098238739089 0.006759148254016422 0.0047454532758153915 0.0064220143104132292 -0.0034400475075351436 0.0013588056359997874 0.0042934197429078278 0.0092570985582500105 -0.0029077797233221948
leaf_weight=4.7918433044105759 30.962354404851794 18.780333386734128 12.386410390026869 27.792227513156831 8.3596749827265722 114.53751790709794 26.84163396153599 5.4732136763632289 14.786159681156279 12.579186077229677 140.09964992664754 107.13442584685981 7.1020425558090201 10.416536081582306 6.3914140658453098 13.438976203091441 4.8938936162739983 1.7755386345088506 20.908892755396664
leaf_count=18 684 119 252 1058 48 6119 1117 17 490 109 1367 277 76 47 175 213 69 3 642
internal_value=0 -0.00390025 0.00373767 -0.00502715 -0.0063561 -0.00715985 -0.00294744 -0.00450992 0.00201703 -0.000548873 0.00204446 0.00596678 -0.00211416 0.00224401 0.0019067 -0.00282217 -0.00383693 -0.00462519 -0.00195562
internal_weight=0 288.453 300.999 242.307 166.395 151.644 37.1067 32.3148 46.1457 27.3653 171.062 129.937 75.9116 22.8029 14.7511 68.8095 55.3706 50.4767 22.6844
internal_count=12900 10273 2627 9555 7494 7271 1152 1134 718 599 2051 576 2061 299 223 1985 1772 1703 645
is_linear=0
shrinkage=0.005


Tree=6
num_leaves=20
num_cat=0
split_feature=3 127 127 3 4 4 3 125 5 4 1 1 4 58 0 125 81 128 128
split_gain=324.185 76.7958 43.5491 34.6903 42.5296 33.5928 23.1839 26.5899 16.9363 16.7262 32.2745 14.3373 22.1186 14.2732 11.9227 10.9715 10.7663 12.0893 12.2141
threshold=3263.5000000000005 99.500000000000014 164.50000000000003 2118.5000000000005 1.0638836572909571e-05 8.6086433894939096e-07 310.50000000000006 38.012332879274922 0.00032404692151635008 7.1727228943896663e-07 0.43501482903957372 0.4438468217849732 9.1832004987413769e-06 1.0000000180025095e-35 10.500000000000002 18.737731997504852 1.0000000180025095e-35 7.1118439200864518 14.339787912219416
decision_type=2 2 2 2 2 2 2 2 2 2 2 2 2 2 2 2 2 2 2
left_child=1 3 8 4 5 6 -1 -8 -2 -3 -11 12 -4 16 -6 -12 17 -5 -19
right_child=2 9 11 13 14 -7 7 -9 -10 10 15 -13 -14 -15 -16 -17 -18 18 -20
leaf_value=0.0072427644209915997 -0.0015546933532940949 0.006348487935758167 -0.00090536783127977778 0.0070547817016415916 0.0056361184591545363 -0.0085322430076966889 -0.0066494262653556107 0.0057351602256070144 0.0026419958529597825 -0.0064242260006161503 -0.0099623480346943231 0.0073118489493077853 0.0057971734341076102 0.0044250702600896908 -0.0034933948903219931 0.0050059649649108421 0.0037544035859854163 -0.006334717496970857 -0.0017284948679092663
leaf_weight=4.8309056255966416 29.111679245717824 14.983992830850182 16.740155100822449 2.5767469163984051 8.4498767699114961 109.86840936588123 25.46202207449824 5.2231100536882868 138.01192948967218 12.213538481853904 1.3144844174385095 69.611708715558052 46.499658051878214 7.3383535528555504 6.2002489948645225 17.829366888850927 5.5216626953333607 28.578556951135397 28.991105069406331
leaf_count=18 684 99 288 24 48 6119 1117 17 1367 452 34 160 128 76 175 133 79 1083 799
internal_value=0 -0.00387558 0.00360953 -0.00504456 -0.00634752 -0.00716574 -0.00293849 -0.00454137 0.00191096 0.00200298 -7.34977e-05 0.00574627 0.00402295 -0.00218839 0.00177231 0.00397819 -0.00292744 -0.00354085 -0.0040151
internal_weight=0 279.382 299.975 233.041 160.035 145.384 35.516 30.6851 167.124 46.3414 31.3574 132.852 63.2398 73.0064 14.6501 19.1439 65.6681 60.1464 57.5697
internal_count=12900 10273 2627 9555 7494 7271 1152 1134 2051 718 619 576 416 2061 223 167 1985 1906 1882
is_linear=0
shrinkage=0.005


Tree=7
num_leaves=20
num_cat=0
split_feature=3 127 127 3 4 4 3 125 4 3 4 1 58 1 4 125 81 1 1
split_gain=299.573 84.8146 42.0277 34.6592 37.9583 32.4395 21.8857 25.5135 17.4675 17.1705 15.916 33.9716 12.5764 12.4801 24.6144 10.8765 10.5083 12.8102 11.0593
threshold=3263.5000000000005 99.500000000000014 164.50000000000003 2118.5000000000005 1.0638836572909571e-05 8.6086433894939096e-07 394.50000000000006 38.012332879274922 6.9397277268197617e-06 7522.0000000000009 7.1727228943896663e-07 0.46950972080230718 1.0000000180025095e-35 0.4438468217849732 9.1832004987413769e-06 15.370129219134304 1.0000000180025095e-35 0.37632092833518987 -0.059599507600069039
decision_type=2 2 2 2 2 2 2 2 2 2 2 2 2 2 2 2 2 2 2
left_child=1 3 8 4 5 6 -1 -8 9 15 -3 -12 16 14 -4 -2 17 18 -5
right_child=2 10 13 12 -6 -7 7 -9 -10 -11 11 -13 -14 -15 -16 -17 -18 -19 -20
leaf_value=0.0059496861335056649 -0.0083168181465346856 0.0063390337175913527 -0.0017748086325656129 0.0063315284177525048 0.0013547784661934732 -0.0085063934769584841 -0.0068774562158713127 0.0055891076209252342 0.0032086376754193301 0.005361040760461888 -0.0058430641436603512 0.0046444170070508344 0.0039445221516099032 0.0070916142793700223 0.0057883637417506023 -0.0005398495519163502 0.003534524274912861 0.0011728408153820649 -0.0052194248704406834
leaf_weight=5.7818294782191506 4.91611040290445 16.140008508227766 14.195156705565749 2.1733587840571991 14.484633060172198 106.67455908749253 23.663735054433349 4.9652265831828108 98.009103592485189 12.042957650497554 13.3139831032604 18.383741335943341 7.5654432261362663 69.272545697167516 44.424934761598706 52.586060767062008 5.8213961748406282 11.680706832557915 44.518684453330934
leaf_count=37 168 99 288 17 223 6119 1098 17 713 71 491 128 76 160 128 1099 79 203 1686
internal_value=0 -0.00375398 0.0034963 -0.00502738 -0.00635333 -0.00714469 -0.00292336 -0.00471533 0.00184874 -6.7757e-05 0.00229734 0.000239364 -0.0021528 0.00565481 0.0039569 -0.00120474 -0.00287138 -0.00351023 -0.00468177
internal_weight=0 275.167 295.447 227.33 155.57 141.085 34.4108 28.629 167.554 69.5451 47.8377 31.6977 71.7596 127.893 58.6201 57.5022 64.1941 58.3728 46.692
internal_count=12900 10273 2627 9555 7494 7271 1152 1115 2051 1338 718 619 2061 576 416 1267 1985 1906 1703
is_linear=0
shrinkage=0.005


Tree=8
num_leaves=20
num_cat=0
split_feature=3 127 127 3 4 4 3 125 5 0 1 4 58 1 4 128 81 128 0
split_gain=285.694 79.5803 43.0218 32.5528 35.7874 32.8196 19.9384 23.8992 16.497 13.3538 12.7757 18.5213 11.9468 11.8437 22.6255 10.7937 12.0715 10.3027 10.2411
threshold=3263.5000000000005 99.500000000000014 164.50000000000003 2118.5000000000005 1.0638836572909571e-05 8.6086433894939096e-07 310.50000000000006 38.012332879274922 0.00032404692151635008 13.500000000000002 0.34927603602409368 7.1727228943896663e-07 1.0000000180025095e-35 0.4438468217849732 9.1832004987413769e-06 7.1118439200864518 1.0000000180025095e-35 14.339787912219416 10.500000000000002
decision_type=2 2 2 2 2 2 2 2 2 2 2 2 2 2 2 2 2 2 2
left_child=1 3 8 4 5 6 -1 -8 -2 10 11 -3 15 14 -4 -5 17 -17 -6
right_child=2 9 13 12 18 -7 7 -9 -10 -11 -12 -13 -14 -15 -16 16 -18 -19 -20
leaf_value=0.0063881233004584991 -0.0017439430567242516 0.0052363677378902311 -0.0017438705769270513 0.0064006853871530793 0.004927414041635594 -0.0084607987098112448 -0.0064643596338879866 0.0056871626734800529 0.0024528618945815796 -0.0069364275465827819 0.0045360256281864438 -0.0074516291380109225 0.003717801037064409 0.0069812912549956372 0.0056739673178904295 -0.0063573493372762928 0.0033788979910193157 -0.00197643898120882 -0.003648868712468637
leaf_weight=5.0444941818714133 28.182453571818769 5.3482028450816852 13.492358251474796 2.9785814136266699 8.1516178566962463 103.50803085556254 23.737317468971018 4.8778209015727034 138.44308552797884 3.7279266798868766 32.291810549795628 6.2228506617248058 7.6816374631598583 70.140909852460027 43.173344261944294 26.076235107146204 5.992933281697332 27.651203187182546 6.0750219561159602
leaf_count=18 684 41 288 26 48 6119 1117 17 1367 136 278 263 76 160 128 1083 77 799 175
internal_value=0 -0.00371815 0.0034132 -0.0049771 -0.00628321 -0.00706611 -0.00277724 -0.00439298 0.00174303 0.00214858 0.00292072 -0.00158717 -0.00216755 0.00560783 0.00390775 -0.0028886 -0.00335191 -0.00410268 0.00126519
internal_weight=0 269.366 293.432 221.775 151.394 137.168 33.6596 28.6151 166.626 47.5908 43.8629 11.5711 70.3806 126.807 56.6657 62.699 59.7204 53.7274 14.2266
internal_count=12900 10273 2627 9555 7494 7271 1152 1134 2051 718 582 304 2061 576 416 1985 1959 1882 223
is_linear=0
shrinkage=0.005


Tree=9
num_leaves=20
num_cat=0
split_feature=3 127 127 4 3 4 3 37 125 3 1 4 60 1 2 0 6 1 125
split_gain=277.793 70.8437 48.5876 27.7778 25.7214 20.0869 24.5558 17.5799 18.5165 15.6867 13.4748 24.413 12.7079 11.4917 10.756 11.0012 9.65193 9.082 9.87196
threshold=2449.5000000000005 164.50000000000003 99.500000000000014 1.2050616950942014e-05 4796.5000000000009 1.0385229310479628e-06 2118.5000000000005 1.0000000180025095e-35 38.012332879274922 1534.5000000000002 0.4438468217849732 9.1832004987413769e-06 1.0000000180025095e-35 0.59127074480056774 5.5000000000000009 9.5000000000000018 0.00089374570027930019 0.57069656252861034 12.633511629449297
decision_type=2 2 2 2 2 2 2 2 2 2 2 2 2 2 2 2 2 2 2
left_child=2 4 3 5 17 7 12 8 -1 -4 11 -3 -7 -11 15 -8 -5 18 -2
right_child=1 10 9 16 -6 6 14 -9 -10 13 -12 -13 -14 -15 -16 -17 -18 -19 -20
leaf_value=-0.0058380352698391372 0.0042829823697534018 -0.0018161901685061275 0.005324450237805302 -0.0083756761080339779 0.0030051802230473697 -0.0085056114586825188 0.0060829462264591991 0.0055335003291908944 0.0051489304134204527 -0.0050776839562290746 0.0068829821603919716 0.0056122394753258236 0.0046245768350591226 0.0065852325876672706 0.0067272107745555967 -0.0054483407760793677 0.0030511174002495166 0.0062158999964627261 -0.0011082906979861516
leaf_weight=30.429188044276088 9.1392627758905274 14.944017276167868 13.727827436290683 2.2074965108185998 88.289389391429722 99.272677382454276 2.4452116433531073 5.0449897348880759 4.3877646420150986 9.4532782072201353 76.739326048642397 42.558697611093521 1.8776268707588304 2.7197168301790944 2.9492610665038219 13.41997201554477 11.348233966156839 4.8905255012214175 119.71394329704344
leaf_count=1344 109 351 93 79 747 6000 27 50 20 291 188 143 38 15 26 498 159 15 2707
internal_value=0 0.00264429 -0.00472741 -0.00568164 0.00091063 -0.00626448 -0.00728626 -0.00318946 -0.00445342 0.00166027 0.00551171 0.00368171 -0.00826188 -0.00247193 -0.0020411 -0.00367109 0.00119031 -0.000472063 -0.0007259
internal_weight=0 356.275 199.283 173.382 222.033 159.827 119.965 39.8619 34.817 25.9008 134.242 57.5027 101.15 12.173 18.8144 15.8652 13.5557 133.744 128.853
internal_count=12900 4260 8640 8241 3578 8003 6589 1414 1364 399 682 494 6038 306 551 525 238 2831 2816
is_linear=0
shrinkage=0.005


Tree=10
num_leaves=20
num_cat=0
split_feature=3 127 127 3 4 4 3 125 4 3 1 4 0 58 4 1 128 81 125
split_gain=263.481 76.308 41.3944 30.9591 35.3708 29.1783 19.6132 20.2266 16.5017 19.9636 13.1359 27.1859 11.7884 11.1547 11.0278 12.4689 10.5469 11.0343 9.75369
threshold=3263.5000000000005 99.500000000000014 164.50000000000003 2118.5000000000005 1.0638836572909571e-05 8.6086433894939096e-07 310.50000000000006 38.012332879274922 7.3307737112608347e-06 7522.0000000000009 0.46950972080230718 7.1727228943896663e-07 9.5000000000000018 1.0000000180025095e-35 5.3811489826244683e-06 0.44963745772838598 7.1118439200864518 1.0000000180025095e-35 15.370129219134304
decision_type=2 2 2 2 2 2 2 2 2 2 2 2 2 2 2 2 2 2 2
left_child=1 3 8 4 5 6 -1 -8 9 18 11 -3 -10 16 15 -4 -5 -18 -2
right_child=2 10 14 13 -6 -7 7 -9 12 -11 -12 -13 -14 -15 -16 -17 17 -19 -20
leaf_value=0.0064433130041656062 -0.0082393362294448658 0.0051666754215002495 -0.0020710934202069621 0.0061176573150663986 0.001325196948569789 -0.0083822981662277571 -0.0064023016457791584 0.0054379151361679656 -0.0054221966184349255 0.0049077264103817046 0.0048540429465199408 -0.0055206645551951709 0.0034576821364322185 0.0035527378742955542 0.006229873330452787 0.005268125212908965 -0.0040763562818266564 0.0031331347401800671 -0.00081208017196848759
leaf_weight=4.7918161526322391 4.8114824881777158 11.317530746571721 9.319939551874997 3.1009307559579602 13.990779476240276 98.769331988412887 22.814111027400944 4.2843359522521487 3.9036479881033292 15.816363355144857 22.809649193659425 12.547324129380284 87.816127286292613 7.6034654192626467 98.379283093847334 15.267677690833805 52.367457346990705 5.9058823054656377 54.3693235097453
leaf_count=18 174 84 233 26 223 6119 1117 17 52 73 143 491 617 76 285 58 1882 77 1135
internal_value=0 -0.00365083 0.00328054 -0.00491623 -0.00623063 -0.0070397 -0.00288144 -0.00453033 0.0016573 -8.23136e-05 0.00214086 -0.000452362 0.00307975 -0.00215984 0.00548131 0.00248619 -0.00286755 -0.00334569 -0.00141593
internal_weight=0 260.303 289.684 213.628 144.65 130.66 31.8903 27.0984 166.717 74.9972 46.6745 23.8649 91.7198 68.9777 122.967 24.5876 61.3743 58.2733 59.1808
internal_count=12900 10273 2627 9555 7494 7271 1152 1134 2051 1382 718 575 669 2061 576 291 1985 1959 1309
is_linear=0
shrinkage=0.005


Tree=11
num_leaves=20
num_cat=0
split_feature=3 127 127 3 4 4 3 125 4 3 1 4 5 1 125 6 4 0 87
split_gain=257.195 69.435 39.1263 29.7868 34.086 29.5853 19.2689 19.9541 16.2817 18.2952 13.263 22.6947 10.9386 15.4219 12.1245 10.7361 9.58774 9.12692 9.06476
threshold=3263.5000000000005 99.500000000000014 163.50000000000003 2118.5000000000005 1.0638836572909571e-05 8.6086433894939096e-07 310.50000000000006 38.012332879274922 6.9397277268197617e-06 7522.0000000000009 0.48230585455894476 7.1727228943896663e-07 0.0019928689525681503 0.4438468217849732 20.720691888265634 0.0005247813347623501 1.1332883537947541e-05 10.500000000000002 1.0000000180025095e-35
decision_type=2 2 2 2 2 2 2 2 2 2 2 2 2 2 2 2 2 2 2
left_child=1 3 8 4 5 6 -1 -8 9 -2 11 -3 13 16 -15 -5 -4 -6 -11
right_child=2 10 12 15 17 -7 7 -9 -10 18 -12 -13 -14 14 -16 -17 -18 -19 -20
leaf_value=0.0063671211452066469 -0.0015653493820470751 0.0048585376734000757 -0.0016964479706729676 -0.007171567823845904 0.0045952416718360199 -0.0083369411048710134 -0.0063260959370498972 0.0054718609774429584 0.0029780744179957307 0.00048447929127187777 0.0048017518500468107 -0.0050518050410567729 0.0068896917052738869 -0.00103777491796653 0.0070100660858528306 -0.0013559450294476671 0.0045967577505457635 -0.0035220103520901174 0.0082625353440265864
leaf_weight=4.8867832273244884 54.128160220570862 10.43513932824135 14.891248377971353 9.1672552656382305 8.2567034382373077 96.840569294989109 22.35177400009707 4.2683204207569352 95.232666803523898 6.9710210673511002 21.679072462953627 12.940587087534366 60.02301474660635 5.4388703126460305 33.54045469686389 59.081461289897561 10.196178425103424 5.9645405299961558 8.0965925864875317
leaf_count=18 1262 85 307 384 48 6119 1117 17 711 53 129 504 123 37 80 1677 36 175 18
internal_value=0 -0.0036494 0.00323647 -0.00485351 -0.00615387 -0.00696767 -0.00275905 -0.00443439 0.00163692 -0.000208882 0.00198478 -0.000627737 0.00535599 0.00391909 0.00588713 -0.00213711 0.000861273 0.00119078 0.00466402
internal_weight=0 255.872 288.518 210.817 142.569 128.347 31.5069 26.6201 164.428 69.1958 45.0548 23.3757 124.09 64.0668 38.9793 68.2487 25.0874 14.2212 15.0676
internal_count=12900 10273 2627 9555 7494 7271 1152 1134 2044 1333 718 589 583 460 117 2061 343 223 71
is_linear=0
shrinkage=0.005


Tree=12
num_leaves=20
num_cat=0
split_feature=3 127 127 3 4 4 3 125 4 3 0 58 125 81 1 4 1 4 128
split_gain=254.74 68.1992 39.7066 29.4714 32.2233 28.4957 18.4598 20.5634 16.257 19.1816 11.7553 11.1625 10.8936 10.5748 10.1527 25.224 10.0016 19.8679 9.85504
threshold=3263.5000000000005 99.500000000000014 163.50000000000003 2118.5000000000005 1.0638836572909571e-05 8.6086433894939096e-07 394.50000000000006 38.012332879274922 6.9397277268197617e-06 7522.0000000000009 13.500000000000002 1.0000000180025095e-35 11.010959161860134 1.0000000180025095e-35 0.46950972080230718 7.1727228943896663e-07 0.4438468217849732 9.9878618885669924e-06 14.339787912219416
decision_type=2 2 2 2 2 2 2 2 2 2 2 2 2 2 2 2 2 2 2
left_child=1 3 8 4 5 6 -1 -8 9 -2 14 12 -5 18 15 -3 17 -4 -14
right_child=2 10 16 11 -6 -7 7 -9 -10 -11 -12 -13 13 -15 -16 -17 -18 -19 -20
leaf_value=0.005380158234042344 -0.0016372766231592128 0.0054190911850770188 -0.001381282674033763 0.0056484181449850948 0.00097243570282700515 -0.0083102850678030797 -0.0066292498495788815 0.0053812499938619661 0.0029247559283307745 0.0050703880760890043 -0.0070629571811004375 0.0036069946400176969 -0.0063825088982823412 0.0029961817436747035 0.0049658835178730942 -0.005750932672437553 0.006620350200060297 0.0055425640114045724 -0.00199232632563615
leaf_weight=5.6427804641425636 53.11737297102809 10.535374420695009 13.96584367752075 3.5426469370722762 14.260140936821697 95.492079546209425 21.233313449192796 4.2825735695660105 96.144417790696025 13.33359984308481 3.3886888753622761 7.5013160509988657 24.739427103661001 5.8242840413004151 22.01699900534004 9.7143851160071772 69.708044290542603 40.138469655066729 26.449760933406651
leaf_count=37 1262 69 302 28 223 6119 1098 17 711 71 136 76 1081 77 115 398 162 119 799
internal_value=0 -0.00363874 0.00323493 -0.00484826 -0.00615322 -0.00695553 -0.0028036 -0.00461341 0.00161036 -0.000291362 0.00189737 -0.00214639 -0.00285909 -0.00338772 0.00261575 6.05133e-05 0.00536837 0.00375532 -0.00411408
internal_weight=0 254.624 286.408 208.968 140.911 126.651 31.1587 25.5159 162.595 66.451 45.6554 68.0574 60.5561 57.0135 42.2668 20.2498 123.812 54.1043 51.1892
internal_count=12900 10273 2627 9555 7494 7271 1152 1115 2044 1333 718 2061 1985 1957 582 467 583 421 1880
is_linear=0
shrinkage=0.005


Tree=13
num_leaves=20
num_cat=0
split_feature=3 127 4 127 3 125 3 15 3 4 1 0 1 1 125 5 30 125 128
split_gain=246.537 63.5535 46.3919 31.0831 23.0408 19.8553 22.4555 22.2258 14.562 11.8745 11.5174 10.9839 10.6978 8.82579 8.95466 16.1574 10.0188 11.4517 11.24
threshold=2449.5000000000005 163.50000000000003 1.0638836572909571e-05 121.50000000000001 4796.5000000000009 38.012332879274922 2118.5000000000005 1.0000000180025095e-35 1534.5000000000002 5.3811489826244683e-06 0.4757757186889649 12.500000000000002 0.38105535507202154 0.57069656252861034 12.633511629449297 0.00067659969156205009 1.0000000180025095e-35 18.796553156852912 20.109006673678216
decision_type=2 2 2 2 2 2 2 2 2 2 2 2 2 2 2 2 2 2 2
left_child=2 4 3 5 13 6 7 -1 -5 10 -3 -8 -4 14 15 -2 18 -18 -16
right_child=1 9 12 8 -6 -7 11 -9 -10 -11 -12 -13 -14 -15 16 -17 17 -19 -20
leaf_value=-0.0077055685580419602 -0.0096110333420944324 -0.0012174874524026099 -0.00106420380771562 0.0071767279467998971 0.0028352840613538859 0.0028109785202926562 -0.00019633415197092076 0.0057947203968467887 -0.003628312805515007 0.006034004099981026 0.0051703457380202203 -0.0086959267485328118 0.0058096937482274456 0.0061540288638551053 -0.0021586756180939381 0.0069486000969449357 0.0072485621412069221 -0.0032843956905968504 0.0034189941228985384
leaf_weight=120.56184778781608 1.8111148541793207 12.470698629505934 12.42032019980252 6.5609170999377948 86.007916556671262 5.929773078300058 18.131804086267952 3.1277717221528283 5.9425982143729925 102.62619675323367 16.253240596503019 4.8091665143147102 10.399340776726602 4.7977953106164923 94.326461152173579 7.8907825397327542 7.013055916875599 4.0828457246534526 9.9888248872011882
leaf_count=7284 70 305 279 30 745 89 466 42 161 326 60 231 58 15 2405 38 43 96 157
internal_value=0 0.00249622 -0.00461382 -0.00553762 0.000827914 -0.00615877 -0.00652151 -0.00736418 0.00204137 0.00523866 0.00239702 -0.00197812 0.00206836 -0.000501071 -0.000756279 0.00385731 -0.00114411 0.00337286 -0.00162458
internal_weight=0 347.269 187.884 165.064 215.919 152.56 146.631 123.69 12.5035 131.35 28.7239 22.941 22.8197 129.911 125.113 9.7019 115.411 11.0959 104.315
internal_count=12900 4260 8640 8303 3569 8112 8023 7326 191 691 365 697 337 2824 2809 108 2701 139 2562
is_linear=0
shrinkage=0.005


Tree=14
num_leaves=20
num_cat=0
split_feature=3 127 127 3 4 4 3 125 5 1 4 6 5 1 125 6 2 4 58
split_gain=239.875 61.8022 35.8547 27.6533 32.406 28.2791 17.8117 19.0154 14.6829 11.1108 22.0306 10.5643 9.65954 13.6558 9.66665 9.42906 8.85467 8.5148 8.50112
threshold=3263.5000000000005 99.500000000000014 163.50000000000003 2118.5000000000005 1.0638836572909571e-05 8.6086433894939096e-07 310.50000000000006 38.012332879274922 0.00032404692151635008 0.45875301957130438 7.1727228943896663e-07 0.0005247813347623501 0.0019928689525681503 0.4438468217849732 20.720691888265634 0.0009130982490907001 2.5000000000000004 1.1332883537947541e-05 1.0000000180025095e-35
decision_type=2 2 2 2 2 2 2 2 2 2 2 2 2 2 2 2 2 2 2
left_child=1 3 8 4 5 6 -1 -8 -2 10 -3 -5 13 17 -15 -6 -10 -4 -13
right_child=2 9 12 11 15 -7 7 -9 16 -11 -12 18 -14 14 -16 -17 -18 -19 -20
leaf_value=0.0063033882882206549 -0.0016923378700552032 0.0047395329639055772 -0.0015876167952007319 -0.007239304738087613 -0.0080384646404611099 -0.0082162897896362989 -0.0062283092069853494 0.0054199820824831933 0.0032360576049887857 0.0041970652021113344 -0.005631201245614597 -0.0020683033019124526 0.0066472622792490632 -0.00061944871399647727 0.0066855659458147252 0.0029540933355089727 0.0005324440690346263 0.0044084237731560425 0.0037003114751559276
leaf_weight=4.7012317702174213 27.993713115341961 9.4908850407227892 14.255107061937453 8.7476297095417959 2.337013514712452 93.019914731848985 21.104113311972473 4.2011130563914767 86.653532696887851 23.034585173241794 11.121808008756487 51.111196693498641 58.975199598819017 5.2453007567673913 33.148764662444592 11.804170160554348 46.555437752045691 10.127215418964623 7.298664095811545
leaf_count=18 683 79 307 384 84 6119 1117 17 747 159 480 1605 123 37 80 139 614 36 72
internal_value=0 -0.00359006 0.00314622 -0.00474375 -0.00603082 -0.00685477 -0.00263408 -0.00429449 0.00159941 0.00181067 -0.000856112 -0.00211492 0.00519423 0.00382919 0.00568757 0.00113743 0.00229117 0.000902843 -0.00134748
internal_weight=0 247.972 282.954 204.325 137.168 123.026 30.0065 25.3052 161.203 43.6473 20.6127 67.1575 121.752 62.7764 38.3941 14.1412 133.209 24.3823 58.4099
internal_count=12900 10273 2627 9555 7494 7271 1152 1134 2044 718 559 2061 583 460 117 223 1361 343 1677
is_linear=0
shrinkage=0.005


Tree=15
num_leaves=20
num_cat=0
split_feature=3 127 127 3 4 4 3 125 4 3 1 4 125 6 1 4 6 128 58
split_gain=238.091 59.0966 35.7699 26.2572 32.7137 27.0308 16.4918 19.2352 15.0282 17.6102 10.2471 20.6818 10.833 9.86015 9.52032 18.2087 8.64078 8.62571 9.45148
threshold=3263.5000000000005 99.500000000000014 163.50000000000003 2118.5000000000005 1.0638836572909571e-05 8.6086433894939096e-07 394.50000000000006 38.012332879274922 6.9397277268197617e-06 7522.0000000000009 0.45875301957130438 7.1727228943896663e-07 17.679420229139911 0.0005247813347623501 0.4438468217849732 9.9878618885669924e-06 0.0009130982490907001 7.1118439200864518 1.0000000180025095e-35
decision_type=2 2 2 2 2 2 2 2 2 2 2 2 2 2 2 2 2 2 2
left_child=1 3 8 4 5 6 -1 -8 9 -2 11 -3 -12 -5 15 -4 -6 -15 -19
right_child=2 10 14 13 16 -7 7 -9 -10 -11 12 -13 -14 17 -16 -17 -18 18 -20
leaf_value=0.0052858163858729148 -0.0015457472032890168 0.0045399285434230552 -0.0014475335535716791 -0.0071992559209239698 -0.0078899601225486966 -0.0081833345865804218 -0.0064703682280940937 0.0053301284271301827 0.0028860105361028722 0.004749705359613967 -0.0099597635040608451 -0.0055873279505383022 0.0047508657779811317 0.0063535666696153291 0.006425585387068008 0.0053173280124097699 0.0028876449868042936 -0.0027222975411458987 0.0034027306018466603
leaf_weight=5.3232619026675847 52.688438564538956 9.329917245544495 13.351175188086925 8.4896715455688518 2.2042705770581952 91.665372602641582 20.020747995469723 4.1731119267642489 93.680469256825745 14.076052714139221 1.3264674395322824 10.967449552845208 22.140401545912027 3.3537553157657376 68.37682699970901 39.015598803758621 11.897795077413319 47.352646014187485 7.264549712650477
leaf_count=37 1262 79 302 384 84 6119 1098 17 711 71 27 480 132 23 162 119 139 1582 72
internal_value=0 -0.00359771 0.0031412 -0.00474026 -0.00600456 -0.00684331 -0.00268185 -0.00443494 0.00159417 -0.000218468 0.00166924 -0.000932218 0.00391935 -0.00216669 0.00519691 0.00359259 0.00120302 -0.00142969 -0.00190762
internal_weight=0 245.509 281.189 201.745 135.285 121.182 29.5171 24.1939 160.445 66.7645 43.7642 20.2974 23.4669 66.4606 120.744 52.3668 14.1021 57.971 54.6172
internal_count=12900 10273 2627 9555 7494 7271 1152 1115 2044 1333 718 559 159 2061 583 421 223 1677 1654
is_linear=0
shrinkage=0.005


Tree=16
num_leaves=20
num_cat=0
split_feature=3 127 127 3 4 4 4 3 3 125 1 4 0 1 4 6 125 0 1
split_gain=229.194 59.3861 35.1078 25.9474 32.3115 25.7447 20.5171 18.8104 16.0674 17.515 10.5753 20.027 10.3812 9.60652 16.0602 9.58714 9.52187 8.21432 8.11735
threshold=3263.5000000000005 99.500000000000014 193.50000000000003 2118.5000000000005 1.0638836572909571e-05 8.6086433894939096e-07 7.4913041266166185e-06 7522.0000000000009 394.50000000000006 38.012332879274922 0.48230585455894476 7.1727228943896663e-07 9.5000000000000018 0.44963745772838598 9.4602668462094349e-06 0.0005247813347623501 15.370129219134304 10.500000000000002 0.38347919285297399
decision_type=2 2 2 2 2 2 2 2 2 2 2 2 2 2 2 2 2 2 2
left_child=1 3 6 4 5 8 7 16 -1 -10 11 -3 -8 14 -4 -5 -2 -6 -17
right_child=2 10 13 15 17 -7 12 -9 9 -11 -12 -13 -14 -15 -16 18 -18 -19 -20
leaf_value=0.005096991635755106 -0.0081058781824990198 0.0044940264276948022 -0.0026343713080738181 -0.0072070391900483999 0.0045534762960786129 -0.0081367589025037063 -0.0050325449248621295 0.0045085615049835926 -0.0064213628414291372 0.0050910571266503503 0.0042652573195527694 -0.0050780241730664887 0.0035412201057117522 0.0066358811006930838 0.0052189712403324555 -0.002274009054047853 -0.00088116209067069773 -0.0031672844173252701 0.002712769776879505
leaf_weight=5.3539404487237361 4.9661356573924413 10.111636297777297 8.4326826417818648 8.1807312658056599 7.9367030430585128 90.374722158536315 3.6620180383324614 16.780592145398259 19.728713100310419 3.9683785140514365 21.274549609981477 11.889807442203162 98.363576330244541 63.293291740119457 28.552628565579653 47.821339135058224 55.84633263014257 6.0872666081413627 9.8395091090351325
leaf_count=37 182 85 214 384 48 6119 52 89 1098 17 129 504 655 137 84 1510 1214 175 167
internal_value=0 -0.00355735 0.00308291 -0.00471021 -0.00597746 -0.00682056 0.00175978 -0.000177957 -0.002726 -0.00449346 0.0017517 -0.000678809 0.00323348 0.00545288 0.0034284 -0.0021417 -0.00147115 0.00120219 -0.00142304
internal_weight=0 242.567 279.897 199.291 133.45 119.426 179.619 77.5931 29.051 23.6971 43.276 22.0014 102.026 100.279 36.9853 65.8416 60.8125 14.024 57.6608
internal_count=12900 10273 2627 9555 7494 7271 2192 1485 1152 1115 718 589 707 435 298 2061 1396 223 1677
is_linear=0
shrinkage=0.005


Tree=17
num_leaves=20
num_cat=0
split_feature=3 127 127 3 4 4 3 125 4 6 1 4 1 4 58 1 81 1 128
split_gain=227.616 56.0779 36.0791 25.5553 30.5625 27.2223 16.4288 18.1865 13.7608 16.4207 10.6703 19.9856 9.81671 17.6376 9.7266 10.2889 12.7104 9.03841 8.81904
threshold=3263.5000000000005 99.500000000000014 163.50000000000003 2118.5000000000005 1.0638836572909571e-05 8.6086433894939096e-07 394.50000000000006 38.012332879274922 6.9397277268197617e-06 0.0040644754901355004 0.45875301957130438 7.1727228943896663e-07 0.4438468217849732 9.9878618885669924e-06 1.0000000180025095e-35 0.37632092833518987 1.0000000180025095e-35 -0.059599507600069039 17.565812545223043
decision_type=2 2 2 2 2 2 2 2 2 2 2 2 2 2 2 2 2 2 2
left_child=1 3 8 4 5 6 -1 -8 9 18 11 -3 13 -4 15 16 17 -5 -2
right_child=2 10 12 14 -6 -7 7 -9 -10 -11 -12 -13 -14 -15 -16 -17 -18 -19 -20
leaf_value=0.0051283161608264372 -0.0021799867000727616 0.0043064462950543735 -0.0015850959736018369 0.0057605428865492494 0.0010351388140193614 -0.0081190610288662032 -0.0064023775849506009 0.0051412280578781921 0.0027758398767013808 0.0058049414881039541 0.0040095893722466571 -0.0057612410026185246 0.0063903617571506735 0.0051941667560610402 0.0032651732147457135 0.0015765383431086241 0.0035178945706873235 -0.0052331269943753835 0.0028023258546577157
leaf_weight=5.6069557331502464 46.292947432026267 9.3223053766414541 12.803940386511384 1.960585213266312 14.092363767325876 89.684478721115738 19.564743445254866 4.1326978504657736 91.785555118694901 9.7185646658763272 22.637350998818874 10.460950792767106 68.559855910018086 38.274245258420706 7.4401683844625941 10.898537940345703 5.2619265709072343 40.283184830099344 10.990388084203003
leaf_count=37 1093 79 302 17 223 6119 1098 17 711 73 159 480 162 119 76 213 69 1686 167
internal_value=0 -0.00355385 0.00308057 -0.00466683 -0.0059274 -0.006752 -0.0025682 -0.00438924 0.00151825 -0.000204526 0.00166533 -0.00101713 0.00515413 0.00349479 -0.00211904 -0.00280494 -0.00381011 -0.0047229 -0.00122408
internal_weight=0 241.346 278.425 198.926 133.081 118.989 29.3044 23.6974 158.787 67.0019 42.4206 19.7833 119.638 51.0782 65.8444 58.4042 47.5057 42.2438 57.2833
internal_count=12900 10273 2627 9555 7494 7271 1152 1115 2044 1333 718 559 583 421 2061 1985 1772 1703 1260
is_linear=0
shrinkage=0.005


Tree=18
num_leaves=20
num_cat=0
split_feature=3 127 127 3 4 4 3 125 3 3 1 4 1 4 6 127 1 63 81
split_gain=220.964 54.7091 34.9956 24.9265 29.2574 26.65 15.0033 17.6816 13.8325 10.1922 9.97716 10.2018 9.84867 16.2846 9.20885 9.0949 8.04693 9.22747 12.375
threshold=3263.5000000000005 99.500000000000014 163.50000000000003 2118.5000000000005 1.0638836572909571e-05 8.6086433894939096e-07 394.50000000000006 38.012332879274922 5400.5000000000009 3382.5000000000005 0.34927603602409368 2.4764494029726016e-07 0.4438468217849732 9.9878618885669924e-06 0.0005247813347623501 79.500000000000014 0.38347919285297399 1.0000000180025095e-35 1.0000000180025095e-35
decision_type=2 2 2 2 2 2 2 2 2 2 2 2 2 2 2 2 2 2 2
left_child=1 3 8 4 5 6 -1 -8 9 15 11 -3 13 -4 -5 -2 17 18 -16
right_child=2 10 12 14 -6 -7 7 -9 -10 -11 -12 -13 -14 -15 16 -17 -18 -19 -20
leaf_value=0.0046893214994834917 -0.0014068043318112722 0.0069766918423527493 -0.0015391322411595384 -0.0071483856428400426 0.00092684979224668827 -0.0080676969012067196 -0.0063396758028745007 0.0050568819442596211 0.0031571886679101126 -0.00049404170922129332 0.0030997581570208206 -0.0047963846821100506 0.0063040825928599399 0.0050424835368973195 -0.0043827063516155874 0.0076166677085343021 0.0026453424312790318 0.0025340169798559226 0.0040635704548648496
leaf_weight=5.7382467351853874 4.3210951117798668 2.3134571556001893 12.54728086106479 7.9296181118115774 14.077267037704585 88.435788533650339 19.309795035049323 4.1316279862076035 69.958448763936758 76.460047897417098 30.992692288011312 8.9928342821076495 69.105616727843881 37.449004635214806 33.665329681709409 7.893827497959137 10.122260506264864 8.2376122558489424 4.9779093712568274
leaf_count=37 90 8 302 384 223 6119 1098 17 539 1384 350 360 162 119 1337 31 167 114 59
internal_value=0 -0.00352544 0.0030328 -0.00463517 -0.00588523 -0.00670056 -0.00255713 -0.00433099 0.00149491 0.000183493 0.00163307 -0.00238742 0.00508112 0.00339073 -0.00209987 0.00442457 -0.00139757 -0.0022705 -0.00329468
internal_weight=0 238.924 277.735 196.625 131.693 117.615 29.1797 23.4414 158.633 88.675 42.299 11.3063 119.102 49.9963 64.9327 12.2149 57.0031 46.8809 38.6432
internal_count=12900 10273 2627 9555 7494 7271 1152 1115 2044 1505 718 368 583 421 2061 121 1677 1510 1396
is_linear=0
shrinkage=0.005


Tree=19
num_leaves=20
num_cat=0
split_feature=3 127 4 4 3 3 60 126 15 1 4 0 1 0 128 4 4 125 125
split_gain=218.083 56.1121 39.0555 27.2097 24.1248 19.7642 21.0978 15.9512 15.5942 11.9076 18.0285 9.86493 9.41584 8.19612 8.13551 11.2744 12.7638 10.9597 7.96441
threshold=2449.5000000000005 163.50000000000003 1.0638836572909571e-05 1.0385229310479628e-06 4796.5000000000009 2066.5000000000005 1.0000000180025095e-35 1.0000000180025095e-35 1.0000000180025095e-35 0.4438468217849732 1.1332883537947541e-05 11.500000000000002 0.38105535507202154 12.500000000000002 21.062576783050009 6.4296823244636229e-06 5.9207195478942902e-07 12.633511629449297 15.832527863419218
decision_type=2 2 2 2 2 2 2 2 2 2 2 2 2 2 2 2 2 2 2
left_child=2 4 3 7 14 6 -5 8 -1 10 -3 -9 -4 -7 15 16 -2 -17 -19
right_child=1 9 12 5 -6 13 -8 11 -10 -11 -12 -13 -14 -15 -16 17 -18 18 -20
leaf_value=-0.0052503316919535296 0.0021997837223970331 -0.0012595900711207888 -0.0012262857636361917 -0.0081060793456558984 0.0028455682375996493 -0.00072624029687113495 0.0062410509797875017 -0.006715210608395094 0.0089573972222924941 0.0062581127418745988 0.0051170482926781204 0.0041061227509946417 0.0053191431088376222 -0.0081151488103320072 0.0043053418922920136 0.0062065682428787397 -0.0033108025016861937 -0.0071350183190697592 0.00053328695452171037
leaf_weight=25.928649549372498 12.974910669028757 16.04890173766762 12.218100556172432 88.095183243975043 83.9600376104936 16.835065460763875 2.6391621669754377 2.5462857680395237 2.0867499820888034 75.242443807423115 35.834222426638007 12.181802493520079 9.9843620136380178 4.8298001913353792 7.8522077584639183 8.0758595848456007 55.271359261125326 3.7289301631972185 36.825457659550011
leaf_count=1247 237 378 279 6034 745 478 36 81 3 190 123 174 58 250 114 36 1744 89 604
internal_value=0 0.00236873 -0.00448533 -0.00537297 0.000773524 -0.00666425 -0.00768877 -0.0019774 -0.00419206 0.0049874 0.00314458 0.00223526 0.00171717 -0.00237347 -0.000621254 -0.000952241 -0.00226314 0.00088743 -0.000171805
internal_weight=0 335.814 177.345 155.143 208.689 112.399 90.7343 42.7435 28.0154 127.126 51.8831 14.7281 22.2025 21.6649 124.729 116.877 68.2463 48.6302 40.5544
internal_count=12900 4260 8640 8303 3569 6798 6070 1505 1250 691 501 255 337 728 2824 2710 1981 729 693
is_linear=0
shrinkage=0.005


end of trees

feature_importances:
Column_4=84
Column_3=76
Column_1=57
Column_127=38
Column_125=32
Column_6=17
Column_128=16
Column_0=15
Column_58=10
Column_81=9
Column_5=8
Column_37=3
Column_2=2
Column_15=2
Column_30=2
Column_60=2
Column_105=2
Column_57=1
Column_63=1
Column_87=1
Column_102=1
Column_126=1

parameters:
[boosting: gbdt]
[objective: lambdarank]
[metric: ndcg]
[tree_learner: serial]
[device_type: cpu]
[data: ]
[valid: ]
[num_iterations: 20]
[learning_rate: 0.005]
[num_leaves: 20]
[num_threads: 8]
[deterministic: 0]
[force_col_wise: 0]
[force_row_wise: 0]
[histogram_pool_size: -1]
[max_depth: -1]
[min_data_in_leaf: 20]
[min_sum_hessian_in_leaf: 0.001]
[bagging_fraction: 1]
[pos_bagging_fraction: 1]
[neg_bagging_fraction: 1]
[bagging_freq: 0]
[bagging_seed: 3]
[feature_fraction: 1]
[feature_fraction_bynode: 1]
[feature_fraction_seed: 2]
[extra_trees: 0]
[extra_seed: 6]
[early_stopping_round: 0]
[first_metric_only: 0]
[max_delta_step: 0]
[lambda_l1: 0]
[lambda_l2: 0]
[linear_lambda: 0]
[min_gain_to_split: 0]
[drop_rate: 0.1]
[max_drop: 50]
[skip_drop: 0.5]
[xgboost_dart_mode: 0]
[uniform_drop: 0]
[drop_seed: 4]
[top_rate: 0.2]
[other_rate: 0.1]
[min_data_per_group: 100]
[max_cat_threshold: 32]
[cat_l2: 10]
[cat_smooth: 10]
[max_cat_to_onehot: 4]
[top_k: 20]
[monotone_constraints: ]
[monotone_constraints_method: basic]
[monotone_penalty: 0]
[feature_contri: ]
[forcedsplits_filename: ]
[refit_decay_rate: 0.9]
[cegb_tradeoff: 1]
[cegb_penalty_split: 0]
[cegb_penalty_feature_lazy: ]
[cegb_penalty_feature_coupled: ]
[path_smooth: 0]
[interaction_constraints: ]
[verbosity: 1]
[saved_feature_importance_type: 0]
[linear_tree: 0]
[max_bin: 255]
[max_bin_by_feature: ]
[min_data_in_bin: 3]
[bin_construct_sample_cnt: 200000]
[data_random_seed: 1]
[is_enable_sparse: 1]
[enable_bundle: 1]
[use_missing: 1]
[zero_as_missing: 0]
[feature_pre_filter: 1]
[pre_partition: 0]
[two_round: 0]
[header: 0]
[label_column: ]
[weight_column: ]
[group_column: ]
[ignore_column: ]
[categorical_feature: ]
[forcedbins_filename: ]
[precise_float_parser: 0]
[parser_config_file: ]
[objective_seed: 5]
[num_class: 1]
[is_unbalance: 0]
[scale_pos_weight: 1]
[sigmoid: 1]
[boost_from_average: 1]
[reg_sqrt: 0]
[alpha: 0.9]
[fair_c: 1]
[poisson_max_delta_step: 0.7]
[tweedie_variance_power: 1.5]
[lambdarank_truncation_level: 30]
[lambdarank_norm: 1]
[label_gain: ]
[lambdarank_position_bias_regularization: 0]
[eval_at: 10]
[multi_error_top_k: 1]
[auc_mu_weights: ]
[num_machines: 1]
[local_listen_port: 12400]
[time_out: 120]
[machine_list_filename: ]
[machines: ]
[gpu_platform_id: -1]
[gpu_device_id: -1]
[gpu_use_dp: 0]
[num_gpu: 1]

end of parameters

pandas_categorical:null
